digraph Tree {
node [shape=box, style="filled", color="black"] ;
0 [label="petal width (cm) <= 0.8\ngini = 0.666\nsamples = 112\nvalue = [35, 39, 38]\nclass = versicolor", fillcolor="#fcfffd"] ;
1 [label="gini = 0.0\nsamples = 35\nvalue = [35, 0, 0]\nclass = setosa", fillcolor="#e58139"] ;
0 -> 1 [labeldistance=2.5, labelangle=45, headlabel="True"] ;
2 [label="petal length (cm) <= 4.75\ngini = 0.5\nsamples = 77\nvalue = [0, 39, 38]\nclass = versicolor", fillcolor="#fafefc"] ;
0 -> 2 [labeldistance=2.5, labelangle=-45, headlabel="False"] ;
3 [label="gini = 0.056\nsamples = 35\nvalue = [0, 34, 1]\nclass = versicolor", fillcolor="#3fe685"] ;
2 -> 3 ;
4 [label="gini = 0.21\nsamples = 42\nvalue = [0, 5, 37]\nclass = virginica", fillcolor="#9254e9"] ;
2 -> 4 ;
}